<?xml version="1.0"?>
<opencv_storage>
<cascade>
  <stageType>BOOST</stageType>
  <featureType>LBP</featureType>
  <height>40</height>
  <width>20</width>
  <stageParams>
    <boostType>GAB</boostType>
    <minHitRate>9.9500000476837158e-001</minHitRate>
    <maxFalseAlarm>5.0000000000000000e-001</maxFalseAlarm>
    <weightTrimRate>9.4999998807907104e-001</weightTrimRate>
    <maxDepth>1</maxDepth>
    <maxWeakCount>100</maxWeakCount></stageParams>
  <featureParams>
    <maxCatCount>256</maxCatCount>
    <featSize>1</featSize></featureParams>
  <stageNum>4</stageNum>
  <stages>
    <!-- stage 0 -->
    <_>
      <maxWeakCount>2</maxWeakCount>
      <stageThreshold>-5.8592087030410767e-001</stageThreshold>
      <weakClassifiers>
        <_>
          <internalNodes>
            0 -1 9 -67108865 -245894445 1115931867 -654065593 -343156581
            1376501827 -444079697 -570426673</internalNodes>
          <leafValues>
            -9.9396681785583496e-001 3.9285713434219360e-001</leafValues></_>
        <_>
          <internalNodes>
            0 -1 6 -2098177 -753413477 -1022918609 -606091897
            -1022373653 -754220477 1499173343 -67108865</internalNodes>
          <leafValues>
            -9.7877800464630127e-001 8.0592781305313110e-001</leafValues></_></weakClassifiers></_>
    <!-- stage 1 -->
    <_>
      <maxWeakCount>2</maxWeakCount>
      <stageThreshold>-5.9658569097518921e-001</stageThreshold>
      <weakClassifiers>
        <_>
          <internalNodes>
            0 -1 3 -201326665 -2123981 1336655839 -10489505 -88088133
            -4476741 -69469185 -1</internalNodes>
          <leafValues>
            -9.9196785688400269e-001 3.9622640609741211e-001</leafValues></_>
        <_>
          <internalNodes>
            0 -1 5 -35652809 -140518089 2132005791 -536879201 -69489669
            -87847941 -263681 -257</internalNodes>
          <leafValues>
            -9.9281209707260132e-001 5.3245228528976440e-001</leafValues></_></weakClassifiers></_>
    <!-- stage 2 -->
    <_>
      <maxWeakCount>3</maxWeakCount>
      <stageThreshold>-1.3496866226196289e+000</stageThreshold>
      <weakClassifiers>
        <_>
          <internalNodes>
            0 -1 4 -2097153 -2098721 -587105281 -142885 -51446785
            -33710657 -101712897 -5125</internalNodes>
          <leafValues>
            -9.8693466186523438e-001 1.6363635659217834e-001</leafValues></_>
        <_>
          <internalNodes>
            0 -1 1 -580911105 -8915121 -578193921 -5779005 -744752897
            -74733426 -607662085 -469</internalNodes>
          <leafValues>
            -9.6627581119537354e-001 5.6978434324264526e-001</leafValues></_>
        <_>
          <internalNodes>
            0 -1 2 -740294657 -67390561 -607403553 -2631970 -511972433
            -72645992 -273947137 -786434</internalNodes>
          <leafValues>
            -9.8704326152801514e-001 6.0352379083633423e-001</leafValues></_></weakClassifiers></_>
    <!-- stage 3 -->
    <_>
      <maxWeakCount>3</maxWeakCount>
      <stageThreshold>-1.5160789489746094e+000</stageThreshold>
      <weakClassifiers>
        <_>
          <internalNodes>
            0 -1 7 -581437441 -137919649 -545039137 -3435573 -640685635
            -1334400 -6816005 -17</internalNodes>
          <leafValues>
            -9.8886638879776001e-001 -1.4492753893136978e-002</leafValues></_>
        <_>
          <internalNodes>
            0 -1 0 -9729 -246213813 1931496923 -144319105 -79561729
            -339629045 -68601141 -2098177</internalNodes>
          <leafValues>
            -9.6878105401992798e-001 4.4458475708961487e-001</leafValues></_>
        <_>
          <internalNodes>
            0 -1 8 -606080033 -540026017 -1860972069 -73927745
            -641205764 -67206740 -153368321 -1048593</internalNodes>
          <leafValues>
            -9.7179728746414185e-001 6.7165178060531616e-001</leafValues></_></weakClassifiers></_></stages>
  <features>
    <_>
      <rect>
        0 1 3 6</rect></_>
    <_>
      <rect>
        1 28 4 3</rect></_>
    <_>
      <rect>
        3 14 3 8</rect></_>
    <_>
      <rect>
        4 3 5 7</rect></_>
    <_>
      <rect>
        5 24 5 4</rect></_>
    <_>
      <rect>
        7 6 4 5</rect></_>
    <_>
      <rect>
        9 25 2 5</rect></_>
    <_>
      <rect>
        10 24 2 4</rect></_>
    <_>
      <rect>
        10 25 2 4</rect></_>
    <_>
      <rect>
        11 2 3 12</rect></_></features></cascade>
</opencv_storage>
